net 
{ 
}
node dmg 
{
  states = ( "0" "1" );
}
node cau 
{
  states = ( "0" "1" );
}
node vrt 
{
  states = ( "0" "1" );
}
node vst 
{
  states = ( "0" "1" );
}
node vun 
{
  states = ( "0" "1" );
}
node jus 
{
  states = ( "0" "1" );
}
node ift 
{
  states = ( "0" "1" );
}
node ila 
{
  states = ( "0" "1" );
}
node ico 
{
  states = ( "0" "1" );
}
node prp 
{
  states = ( "0" "1" );
}
node duty 
{
  states = ( "0" "1" );
}
node c1 
{
  states = ( "0" "1" );
}
node c2 
{
  states = ( "0" "1" );
}
node c3 
{
  states = ( "0" "1" );
}
node c4 
{
  states = ( "0" "1" );
}
node c5 
{
  states = ( "0" "1" );
}
potential ( dmg | duty c3 c5 ) 
{
  data = ((((0.5 0.5)(0.5 0.5))((0.64 0.36)(0.5 0.5)))(((0.5 0.5)(0.5 0.5))((0.0 1.0)(0.5 0.5)))) ;
}
potential ( cau | dmg duty c2 c3 c5 ) 
{
  data = ((((((0.5 0.5)(0.5 0.5))((0.5 0.5)(0.5 0.5)))(((0.5 0.5)(0.5 0.5))((0.5 0.5)(0.5 0.5))))((((0.5 0.5)(0.5 0.5))((0.5 0.5)(0.5 0.5)))(((0.5 0.5)(0.5 0.5))((0.5 0.5)(0.5 0.5)))))(((((0.5 0.5)(0.5 0.5))((0.5 0.5)(0.5 0.5)))(((0.5 0.5)(0.5 0.5))((1.0 0.0)(0.5 0.5))))((((0.5 0.5)(0.5 0.5))((0.5 0.5)(0.5 0.5)))(((0.5 0.5)(0.5 0.5))((0.0 1.0)(0.5 0.5)))))) ;
}
potential ( vrt | vst vun jus c3 ) 
{
  data = (((((1.0 0.0)(0.0 1.0))((0.5 0.5)(0.5 0.5)))(((0.5 0.5)(0.5 0.5))((0.5 0.5)(0.5 0.5))))((((0.5 0.5)(0.5 0.5))((0.5 0.5)(0.5 0.5)))(((0.5 0.5)(0.5 0.5))((0.5 0.5)(0.5 0.5))))) ;
}
potential ( vst | c5 ) 
{
  data = ((0.6666667 0.3333333)(0.0 1.0)) ;
}
potential ( vun | jus c3 ) 
{
  data = (((1.0 0.0)(0.4285714 0.5714286))((1.0 0.0)(0.0 1.0))) ;
}
potential ( jus | vst c3 ) 
{
  data = (((0.3333333 0.6666667)(0.6 0.4))((0.0 1.0)(0.6666667 0.3333333))) ;
}
potential ( ift | c2 ) 
{
  data = ((1.0 0.0)(0.4285714 0.5714286)) ;
}
potential ( ila | ift ico c2 ) 
{
  data = ((((1.0 0.0)(0.0 1.0))((0.5 0.5)(0.5 0.5)))(((0.5 0.5)(0.5 0.5))((0.5 0.5)(0.5 0.5)))) ;
}
potential ( ico | ift c2 ) 
{
  data = (((1.0 0.0)(0.3333333 0.6666667))((0.5 0.5)(0.5 0.5))) ;
}
potential ( prp | vst c5 ) 
{
  data = (((0.5 0.5)(0.5 0.5))((0.0 1.0)(1.0 0.0))) ;
}
potential ( duty ) 
{
  data = ( 0.890625 0.109375 );
}
potential ( c1 | cau ) 
{
  data = ((1.0 0.0)(0.0 1.0)) ;
}
potential ( c2 | duty ) 
{
  data = ((0.1403509 0.8596491)(0.0 1.0)) ;
}
potential ( c3 | vst duty ) 
{
  data = (((0.4343891 0.5656109)(0.0 1.0))((0.2723404 0.7276596)(0.0 1.0))) ;
}
potential ( c4 | dmg ) 
{
  data = ((1.0 0.0)(0.0 1.0)) ;
}
potential ( c5 | duty ) 
{
  data = ((0.7192982 0.2807018)(1.0 0.0)) ;
}
